Cufon.registerFont({"w":1672,"face":{"font-family":"Blutter","font-weight":400,"font-stretch":"normal","units-per-em":"2048","panose-1":"2 11 6 3 5 3 2 2 2 4","ascent":"1638","descent":"-410","bbox":"131 -2108 2162 483","underline-thickness":"0","underline-position":"0","unicode-range":"U+0020-U+00FE"},"glyphs":{" ":{"w":820},"\u00fe":{"d":"325,-1914r0,32r96,0v6,48,23,85,33,130r-65,0r-17,-65r-159,0r-18,65r-64,0v10,-44,26,-82,32,-130r97,0r0,-32r-97,0r0,-32r-32,0r32,-151v1,-3,-2,-11,2,-11r256,0v6,59,23,107,33,162r-33,0r0,32r-96,0xm225,-513r0,-45r179,0r0,-134r-179,0r0,-44r179,0r45,44r0,134r-45,45r-179,0xm180,-763r0,-45r45,0r0,-156r44,0r0,156r134,0r0,-156r45,0r0,156r-45,45r-223,0xm180,-993r0,-45r45,0r0,-157r44,0r0,157r134,0r0,-157r45,0r0,157r-45,45r-223,0xm225,-1523r0,-157r45,0r0,157r179,0r0,45r-179,0xm136,-316r0,-45r268,0r0,-134r45,0r0,134r-45,45r-268,0xm225,-1268r0,-134r45,-45r45,0r44,45r0,113r-44,0r0,-113r-45,0r0,134r134,0r0,-157r45,0r0,157r-45,45r-134,0xm136,-70r0,-45r268,0r0,-134r-134,0r0,112r-45,0r0,-112r45,-45r134,0r45,45r0,134r-45,45r-268,0xm368,-2043r-152,0r-14,64r180,0","w":476},"A":{"d":"1166,-939r0,285r-711,0r0,284r853,0r0,-853r-995,0r0,-284r995,0r285,284r0,853r-285,285r-853,0r-284,-285r0,-284r284,-285r711,0"},"B":{"d":"171,-2076r284,0r0,1706r853,0r0,-853r-711,0r0,-284r711,0r285,284r0,853r-285,285r-853,0r-284,-285r0,-1706"},"C":{"d":"455,-1507r853,0r0,284r-853,0r0,853r853,0r0,285r-853,0r-284,-285r0,-853","w":1373},"D":{"d":"455,-1507r711,0r0,284r-711,0r0,853r853,0r0,-1706r285,0r0,1706r-285,285r-853,0r-284,-285r0,-853"},"E":{"d":"455,-1507r853,0r285,284r0,284r-285,285r-718,0r0,-285r718,0r0,-284r-853,0r0,853r996,0r0,285r-996,0r-284,-285r0,-853"},"F":{"d":"455,-2076r720,0r-4,284r-716,0r0,285r569,0r0,284r-569,0r0,1138r-284,0r0,-1707","w":1233},"G":{"d":"455,-1507r853,0r285,284r0,1421r-285,285r-995,0r0,-285r995,0r0,-1421r-853,0r0,853r716,0r0,285r-716,0r-284,-285r0,-853"},"H":{"d":"171,-2076r284,0r0,569r853,0r285,284r0,1138r-285,0r0,-1138r-853,0r0,1138r-284,0r0,-1991"},"I":{"d":"171,-1507r284,0r0,1137r285,0r0,285r-285,0r-284,-285r0,-1137xm171,-1653r0,-285r284,0r0,285r-284,0","w":777},"J":{"d":"171,198r284,0r0,-1705r285,0r0,1705r-285,285r-284,0r0,-285xm455,-1650r0,-284r285,0r0,284r-285,0","w":777},"L":{"d":"171,-2076r284,0r0,1706r853,0r0,285r-853,0r-284,-285r0,-1706","w":1373},"M":{"d":"171,-1223r284,-284r1422,0r285,284r0,1138r-285,0r0,-1138r-569,0r0,1138r-284,0r0,-1138r-569,0r0,1138r-284,0r0,-1138","w":2270},"N":{"d":"455,-1507r853,0r285,284r0,1138r-285,0r0,-1138r-853,0r0,1138r-284,0r0,-1138"},"O":{"d":"455,-1507r853,0r285,284r0,853r-285,285r-853,0r-284,-285r0,-853xm455,-1223r0,853r853,0r0,-853r-853,0"},"P":{"d":"455,-1507r853,0r285,284r0,853r-285,285r-711,0r0,-285r711,0r0,-853r-853,0r0,1706r-284,0r0,-1706"},"Q":{"d":"455,-1507r853,0r285,284r0,1706r-285,0r0,-1706r-853,0r0,853r711,0r0,285r-711,0r-284,-285r0,-853"},"R":{"d":"455,-1507r996,0r0,284r-996,0r0,1138r-284,0r0,-1138","w":1523},"S":{"d":"1593,-1507r0,284r-1138,0r0,284r853,0r285,285r0,284r-285,285r-1137,0r0,-285r1137,0r0,-284r-853,0r-284,-285r0,-284r284,-284r1138,0"},"T":{"d":"171,-1792r284,0r0,285r996,0r0,284r-996,0r0,853r996,0r0,285r-996,0r-284,-285r0,-1422","w":1523},"U":{"d":"171,-1507r284,0r0,1137r853,0r0,-1137r285,0r0,1137r-285,285r-853,0r-284,-285r0,-1137"},"V":{"d":"171,-1507r284,0r0,1137r569,0r284,-1137r285,0r-285,1137r-284,285r-569,0r-284,-285r0,-1137"},"W":{"d":"171,-1507r284,0r0,1137r569,0r0,-1137r284,0r0,1137r569,0r0,-1137r285,0r0,1137r-285,285r-1422,0r-284,-285r0,-1137","w":2270},"X":{"d":"171,-1507r284,0r0,568r853,0r0,-568r285,0r0,568r-285,285r285,0r0,569r-285,0r0,-569r-853,0r0,569r-284,0r0,-569r284,-285r-284,0r0,-568"},"Y":{"d":"171,-1507r284,0r0,1137r853,0r0,-1137r285,0r0,1705r-285,285r-995,0r0,-285r995,0r0,-283r-853,0r-284,-285r0,-1137"},"a":{"d":"1166,-939r0,285r-711,0r0,284r853,0r0,-853r-995,0r0,-284r995,0r285,284r0,853r-285,285r-853,0r-284,-285r0,-284r284,-285r711,0"},"b":{"d":"171,-2076r284,0r0,1706r853,0r0,-853r-711,0r0,-284r711,0r285,284r0,853r-285,285r-853,0r-284,-285r0,-1706"},"c":{"d":"455,-1507r853,0r0,284r-853,0r0,853r853,0r0,285r-853,0r-284,-285r0,-853","w":1373},"d":{"d":"455,-1507r711,0r0,284r-711,0r0,853r853,0r0,-1706r285,0r0,1706r-285,285r-853,0r-284,-285r0,-853"},"e":{"d":"455,-1507r853,0r285,284r0,284r-285,285r-718,0r0,-285r718,0r0,-284r-853,0r0,853r996,0r0,285r-996,0r-284,-285r0,-853"},"f":{"d":"455,-2076r720,0r-4,284r-716,0r0,285r569,0r0,284r-569,0r0,1138r-284,0r0,-1707","w":1233},"g":{"d":"455,-1507r853,0r285,284r0,1421r-285,285r-995,0r0,-285r995,0r0,-1421r-853,0r0,853r716,0r0,285r-716,0r-284,-285r0,-853"},"h":{"d":"171,-2076r284,0r0,569r853,0r285,284r0,1138r-285,0r0,-1138r-853,0r0,1138r-284,0r0,-1991"},"i":{"d":"171,-1507r284,0r0,1137r285,0r0,285r-285,0r-284,-285r0,-1137xm171,-1653r0,-285r284,0r0,285r-284,0","w":777},"j":{"d":"171,198r284,0r0,-1705r285,0r0,1705r-285,285r-284,0r0,-285xm455,-1650r0,-284r285,0r0,284r-285,0","w":777},"l":{"d":"171,-2076r284,0r0,1706r853,0r0,285r-853,0r-284,-285r0,-1706","w":1373},"m":{"d":"171,-1223r284,-284r1422,0r285,284r0,1138r-285,0r0,-1138r-569,0r0,1138r-284,0r0,-1138r-569,0r0,1138r-284,0r0,-1138","w":2270},"n":{"d":"455,-1507r853,0r285,284r0,1138r-285,0r0,-1138r-853,0r0,1138r-284,0r0,-1138"},"o":{"d":"455,-1507r853,0r285,284r0,853r-285,285r-853,0r-284,-285r0,-853xm455,-1223r0,853r853,0r0,-853r-853,0"},"p":{"d":"455,-1507r853,0r285,284r0,853r-285,285r-711,0r0,-285r711,0r0,-853r-853,0r0,1706r-284,0r0,-1706"},"q":{"d":"455,-1507r853,0r285,284r0,1706r-285,0r0,-1706r-853,0r0,853r711,0r0,285r-711,0r-284,-285r0,-853"},"r":{"d":"455,-1507r996,0r0,284r-996,0r0,1138r-284,0r0,-1138","w":1523},"s":{"d":"1593,-1507r0,284r-1138,0r0,284r853,0r285,285r0,284r-285,285r-1137,0r0,-285r1137,0r0,-284r-853,0r-284,-285r0,-284r284,-284r1138,0"},"t":{"d":"171,-1792r284,0r0,285r996,0r0,284r-996,0r0,853r996,0r0,285r-996,0r-284,-285r0,-1422","w":1523},"u":{"d":"171,-1507r284,0r0,1137r853,0r0,-1137r285,0r0,1137r-285,285r-853,0r-284,-285r0,-1137"},"v":{"d":"171,-1507r284,0r0,1137r569,0r284,-1137r285,0r-285,1137r-284,285r-569,0r-284,-285r0,-1137"},"w":{"d":"171,-1507r284,0r0,1137r569,0r0,-1137r284,0r0,1137r569,0r0,-1137r285,0r0,1137r-285,285r-1422,0r-284,-285r0,-1137","w":2270},"x":{"d":"171,-1507r284,0r0,568r853,0r0,-568r285,0r0,568r-285,285r285,0r0,569r-285,0r0,-569r-853,0r0,569r-284,0r0,-569r284,-285r-284,0r0,-568"},"y":{"d":"171,-1507r284,0r0,1137r853,0r0,-1137r285,0r0,1705r-285,285r-995,0r0,-285r995,0r0,-283r-853,0r-284,-285r0,-1137"},"!":{"d":"171,-2076r284,0r0,1561r-284,0r0,-1561xm171,-370r284,0r0,285r-284,0r0,-285","w":477},"?":{"d":"171,-2076r995,0r285,284r0,569r-285,284r-711,0r0,427r-284,0r0,-427r284,-284r711,0r0,-569r-995,0r0,-284xm171,-370r284,0r0,285r-284,0r0,-285","w":1523},"\"":{"d":"171,-2076r284,0r0,284r-284,285r0,-569xm597,-2076r285,0r0,284r-285,285r0,-569","w":926},"'":{"d":"171,-2076r284,0r0,284r-284,285r0,-569","w":477},".":{"d":"171,-85r0,-285r284,0r0,285r-284,0","w":477},",":{"d":"171,-370r284,0r0,285r-284,283r0,-568","w":477},":":{"d":"171,-1507r284,0r0,284r-284,0r0,-284xm171,-370r284,0r0,285r-284,0r0,-285","w":477},";":{"d":"171,-1507r284,0r0,284r-284,0r0,-284xm171,-370r284,0r0,285r-284,283r0,-568","w":477},"-":{"d":"171,-939r995,0r0,285r-995,0r0,-285","w":1224},"(":{"d":"455,-1650r285,0r0,285r-285,0r0,1137r285,0r0,284r-285,0r-284,-284r0,-1137","w":777},")":{"d":"171,-1650r284,0r285,285r0,1137r-285,284r-284,0r0,-284r284,0r0,-1137r-284,0r0,-285","w":777},"@":{"d":"171,-1223r284,-284r853,0r285,284r0,853r-285,285r-853,0r-284,-285r0,-284r284,-285r427,0r284,285r0,284r142,0r0,-853r-853,0r0,284r-284,0r0,-284xm882,-654r-427,0r0,284r427,0r0,-284"},"K":{"d":"455,-939r29,0r696,-568r403,0r-697,568r422,0r285,285r0,569r-285,0r0,-569r-853,0r0,569r-284,0r0,-1991r284,0r0,1137"},"k":{"d":"455,-939r29,0r696,-568r403,0r-697,568r422,0r285,285r0,569r-285,0r0,-569r-853,0r0,569r-284,0r0,-1991r284,0r0,1137"},"z":{"d":"171,-1507r1422,0r0,286r-988,851r988,0r0,285r-1422,0r0,-286r988,-852r-988,0r0,-284"},"Z":{"d":"171,-1507r1422,0r0,286r-988,851r988,0r0,285r-1422,0r0,-286r988,-852r-988,0r0,-284"},"1":{"d":"171,-1507r426,0r285,284r0,853r426,0r0,285r-1137,0r0,-285r426,0r0,-853r-426,0r0,-284","w":1373},"2":{"d":"171,-1507r995,0r285,284r0,284r-285,285r-711,0r0,284r996,0r0,285r-1280,0r0,-569r284,-285r711,0r0,-284r-995,0r0,-284","w":1523},"3":{"d":"171,-1507r995,0r285,284r0,284r-285,0r285,285r0,284r-285,285r-995,0r0,-285r995,0r0,-284r-995,0r0,-285r995,0r0,-284r-995,0r0,-284","w":1523},"4":{"d":"171,-1507r284,0r0,568r711,0r0,-568r285,0r0,1422r-285,0r0,-569r-711,0r-284,-285r0,-568","w":1523},"5":{"d":"1451,-1507r0,284r-996,0r0,284r711,0r285,285r0,284r-285,285r-995,0r0,-285r995,0r0,-284r-711,0r-284,-285r0,-568r1280,0","w":1523},"6":{"d":"455,-1507r996,0r0,284r-996,0r0,284r711,0r285,285r0,284r-285,285r-711,0r-284,-285r0,-853xm455,-654r0,284r711,0r0,-284r-711,0","w":1523},"7":{"d":"171,-1507r1280,0r0,568r-285,285r-426,0r0,569r-285,0r0,-569r285,-285r426,0r0,-284r-995,0r0,-284","w":1523},"8":{"d":"455,-1507r711,0r285,284r0,284r-143,143r143,142r0,284r-285,285r-711,0r-284,-285r0,-284r142,-142r-142,-143r0,-284xm455,-654r0,284r711,0r0,-284r-711,0xm455,-1223r0,284r711,0r0,-284r-711,0","w":1523},"9":{"d":"455,-1507r711,0r285,284r0,853r-285,285r-995,0r0,-285r995,0r0,-284r-711,0r-284,-285r0,-284xm455,-1223r0,284r711,0r0,-284r-711,0","w":1523},"0":{"d":"455,-1507r711,0r285,284r0,853r-285,285r-711,0r-284,-285r0,-853xm455,-1223r0,853r711,0r0,-853r-711,0","w":1523},"\u00a0":{"w":820}}});
